%YAML:1.0
my_svm: !!opencv-ml-svm
   svm_type: C_SVC
   kernel: { type:LINEAR }
   C: 1.
   term_criteria: { epsilon:2.2204460492503131e-016, iterations:100 }
   var_all: 2304
   var_count: 2304
   class_count: 2
   class_labels: !!opencv-matrix
      rows: 1
      cols: 2
      dt: i
      data: [ 0, 1 ]
   sv_total: 1
   support_vectors:
      - [ -4.54851324e-005, -5.01157665e-005, -1.09675129e-004,
          -2.98752042e-004, -1.44803664e-004, 1.65133504e-004,
          8.95804624e-005, 2.49179779e-004, -2.39738056e-005,
          -6.39766149e-005, 5.91800526e-005, -5.03100127e-005,
          -2.87308540e-005, -8.10119582e-006, -2.09656228e-005,
          1.14889890e-005, 1.29675173e-005, 6.96542556e-005,
          5.69253971e-005, -9.56826170e-006, -2.29184916e-005,
          -4.11532092e-005, -3.05613685e-005, -2.41114631e-005,
          7.21474717e-005, 1.50422798e-004, 1.40458229e-004,
          1.14560746e-004, -2.92992281e-005, -7.31033288e-005,
          1.03073407e-005, -9.36328361e-005, -6.52078161e-005,
          -8.88761861e-005, -1.00013065e-004, -2.26663571e-004,
          -1.58904906e-004, 4.30322461e-006, 1.96399618e-004,
          -1.07179881e-006, 6.48326532e-005, -2.73432233e-005,
          -1.77356240e-004, 3.66895656e-005, 5.31603728e-005,
          -1.20435951e-004, -1.23457256e-004, -5.07596669e-005,
          -8.24679082e-005, -2.75407929e-005, -2.45178002e-004,
          -1.88018399e-004, 3.31456113e-006, 4.77886751e-005,
          1.20953257e-004, -3.07529262e-006, -7.09412998e-005,
          -2.87636922e-005, -7.16813083e-005, -1.27845458e-004,
          1.21304147e-005, -8.25644565e-006, 8.55554572e-006,
          6.73344111e-005, 7.73889842e-005, 1.04694853e-004,
          1.01812591e-004, 7.73363208e-005, 2.04339776e-005,
          4.25477556e-005, 1.13290742e-004, 1.10734683e-004,
          1.11278008e-004, 1.52686014e-004, 2.64521921e-004,
          2.18274698e-004, 1.12320718e-004, -2.26711072e-005,
          1.66210084e-005, 1.42571234e-005, -6.34821045e-005,
          -6.08511727e-005, -6.77200151e-005, -2.07270336e-004,
          -2.20792776e-004, -5.59420987e-005, 3.67025496e-005,
          1.47868021e-004, -1.58636904e-004, -3.95551069e-005,
          -1.87076497e-004, -5.92629403e-005, 6.72614187e-005,
          -4.21534023e-005, -2.18405694e-004, -1.20289777e-004,
          -1.53341578e-004, -4.73568507e-005, -2.07882811e-004,
          -1.75542824e-004, 1.45400918e-004, 5.72293466e-005,
          -3.61029174e-006, -8.37454500e-005, -7.53652203e-005,
          -5.38604327e-005, -1.36800518e-004, -3.53717878e-005,
          -1.78399951e-005, 2.38828543e-005, 5.03522642e-006,
          2.44596122e-005, 1.54003705e-004, 1.42442979e-004,
          1.28432395e-004, 8.94534169e-005, 5.57813946e-005,
          1.11327900e-004, 1.78509697e-004, 1.66973827e-004,
          1.86655525e-004, 1.86781093e-004, 2.43308619e-004,
          2.91438715e-004, 2.34268940e-004, 8.68795469e-005,
          -4.00821091e-006, -1.56734586e-005, -1.13763126e-004,
          -9.73362185e-005, -8.76266786e-005, -4.20334291e-005,
          -1.28053201e-004, -6.82536192e-005, 2.92102504e-005,
          4.34638787e-005, -1.49380176e-005, -1.46590057e-004,
          -1.51130938e-004, -5.05059543e-005, -2.71626122e-005,
          4.10388566e-005, -5.50668083e-005, -2.02449592e-004,
          -7.94347434e-005, 7.04190388e-005, 2.70702476e-005,
          -1.07822496e-004, 9.03651817e-005, -3.97259028e-005,
          -1.70523490e-004, -6.02134533e-005, -2.19688045e-005,
          -4.02810329e-005, -2.87071507e-005, -3.21195585e-005,
          -4.34884205e-005, -7.98449255e-005, 5.89703222e-006,
          5.98498300e-005, 5.64241345e-005, 1.40434922e-005,
          4.84891325e-006, -5.97282224e-006, 4.01868965e-006,
          1.30355460e-004, 1.78369082e-004, 1.27854393e-004,
          1.80356903e-004, 1.47052604e-004, 1.21248064e-004,
          1.54625217e-004, 1.16677154e-004, 6.23472297e-005,
          -5.34074970e-005, -8.71656230e-005, -2.34127059e-004,
          -1.29773776e-004, -1.26690036e-004, -2.87905495e-005,
          -1.05790736e-004, 2.03535342e-006, 1.11661167e-004,
          -3.77432407e-005, -6.04240813e-005, -1.44272723e-004,
          -4.96873399e-005, -1.68850616e-004, -1.25989740e-004,
          -8.58695603e-006, -9.83226710e-005, -1.21097313e-004,
          -1.57910126e-005, 9.07444846e-005, -1.42229270e-004,
          -7.61097472e-005, 2.04046446e-005, -1.54561261e-004,
          -1.78604110e-004, -3.53671094e-005, 4.35050242e-006,
          5.11411963e-005, -2.10869130e-005, 1.08654749e-005,
          -1.12442263e-004, -5.73985999e-005, -1.00000389e-005,
          -1.94607401e-005, 5.37597680e-006, -3.87142572e-005,
          -7.11139437e-005, -4.11111250e-005, -4.13223679e-005,
          2.98581817e-005, 5.58619940e-005, 1.67410508e-005,
          1.33919339e-005, 9.40679529e-005, 1.72779153e-004,
          2.06619443e-004, 8.41863730e-005, -2.38189132e-005,
          -8.83805697e-005, -8.21279609e-005, -2.02290059e-004,
          -1.77262889e-004, -1.51975662e-004, -9.00525702e-005,
          2.17090328e-005, 5.82932371e-005, 1.38259609e-004,
          5.28019482e-005, -2.61652021e-005, -1.59183386e-004,
          -2.88203919e-005, -1.77666341e-004, -2.43124217e-004,
          -7.89864062e-005, -5.59995169e-005, -1.02523481e-004,
          1.16213028e-004, 2.45347364e-005, -9.84297149e-005,
          -4.39084288e-005, -8.47732372e-005, -9.09977389e-005,
          -4.29712454e-005, 6.88051950e-005, 7.52864707e-006,
          2.22765320e-005, 1.91201798e-005, -1.05750478e-004,
          -5.20285757e-005, 3.53463037e-008, 9.94533548e-006,
          -1.39877829e-005, -5.79467542e-006, -3.61281236e-005,
          -6.33358359e-005, -7.03671788e-007, -1.43267425e-005,
          -5.11358448e-005, -4.55835507e-005, -4.18836316e-005,
          -2.56669882e-005, -4.55185836e-005, 5.38476343e-005,
          1.98359878e-004, 9.57322554e-005, -5.61146480e-005,
          -4.39947180e-005, -1.08629327e-004, -1.46861799e-004,
          -6.43044041e-005, -1.47447892e-004, -2.32158913e-004,
          -1.10183348e-004, 1.13057133e-004, 2.37116648e-004,
          7.82518146e-006, 3.46004344e-005, -1.62586963e-004,
          -8.97910941e-005, -9.11759198e-005, -2.94605386e-004,
          -1.83907614e-004, -1.28397448e-006, -1.32951973e-004,
          1.52909619e-004, 5.98207553e-005, -7.55543588e-005,
          2.36480519e-005, -4.06027502e-005, -7.43617238e-006,
          1.65159406e-006, 5.86120950e-005, -5.66784502e-006,
          -8.92740572e-005, -1.91504296e-005, -5.98466613e-005,
          4.52025524e-005, 1.98824582e-005, -2.58170485e-006,
          3.21183288e-005, 8.50051947e-006, -5.01774084e-005,
          -7.32970329e-006, 1.34010261e-005, -6.11486655e-007,
          -1.89848397e-005, -6.64912222e-005, -6.93706970e-005,
          -4.13398811e-005, -6.97154178e-007, 2.14001266e-005,
          1.32555302e-004, 1.27394465e-004, 3.92962684e-005,
          4.20030810e-005, -1.53996189e-005, -1.18605618e-004,
          -9.08934526e-005, -5.95457386e-005, -1.92625739e-004,
          -3.57822981e-004, -8.06286698e-005, 1.96295572e-004,
          1.39178548e-004, 3.78097175e-005, -1.32988434e-005,
          -2.06313794e-004, 2.09864065e-005, -1.48560575e-004,
          -1.80620700e-004, -1.05196210e-004, -5.94155026e-005,
          1.15405070e-004, 2.08176280e-005, -1.41720928e-004,
          -3.43009524e-005, 4.82785545e-005, 4.50193111e-005,
          -2.06618879e-005, -5.79776133e-006, -2.31812719e-005,
          -2.04961325e-005, -1.85798308e-005, -2.32928069e-005,
          6.77366770e-005, -9.74390423e-006, 4.96177017e-005,
          -2.44144599e-006, -6.20397550e-005, -5.49654869e-005,
          3.11722533e-006, 2.36046199e-005, -1.04367537e-005,
          -6.20865176e-005, -1.22739701e-004, -1.07001732e-004,
          -7.92189094e-005, -1.32576693e-004, -2.02999672e-005,
          4.23486308e-005, 5.89999363e-005, 1.47163528e-005,
          -9.25221975e-005, -6.60040532e-005, -7.54147186e-005,
          -2.61041282e-006, -6.72970054e-005, -1.10046298e-004,
          -2.36197899e-004, -1.94416469e-004, -2.87366965e-005,
          1.60924101e-004, 1.84740027e-004, 8.90023293e-005,
          -3.78807126e-005, -7.61030606e-005, -1.73103326e-004,
          -1.52230932e-004, -1.67142483e-004, -1.31967026e-004,
          2.25869619e-004, 1.98915659e-005, -2.28401652e-004,
          -9.16980298e-006, 6.13453376e-005, 3.25176152e-005,
          -2.83660011e-005, -1.11019821e-004, 4.92073777e-005,
          -5.58983993e-006, -4.07015323e-005, -9.61331352e-006,
          5.59446671e-005, 2.00575814e-005, 6.58071758e-006,
          -7.17501680e-005, -7.42617776e-005, -7.25375066e-005,
          -2.34441522e-005, -3.60846898e-005, -1.12520604e-004,
          -1.04608320e-004, -1.17854994e-004, -1.69165083e-004,
          -1.35762515e-004, -1.64868601e-004, -2.86511313e-005,
          8.72945748e-005, 4.69878760e-005, -5.94025596e-006,
          -4.94226333e-005, -8.67412600e-005, -1.77849550e-004,
          -3.42552121e-005, -6.69338915e-005, -1.65065459e-004,
          -1.54893089e-004, -8.44905881e-005, -1.79952287e-004,
          7.17446601e-005, 1.83422395e-004, 6.56715929e-005,
          -2.48371464e-007, -5.74974511e-005, -1.15312490e-004,
          -8.66224145e-005, -1.50436725e-004, -1.81955053e-004,
          1.23160367e-004, 5.11627804e-005, -9.37430741e-005,
          5.82707544e-005, 1.71960710e-005, -3.83099214e-005,
          -8.45036411e-005, -8.15538369e-005, 9.17093421e-005,
          -3.13709788e-005, -5.44185532e-005, -1.60192158e-005,
          2.23304651e-005, -4.55949703e-005, -9.82259517e-005,
          -1.59941919e-004, -1.60296258e-004, -1.07717082e-004,
          -1.07180909e-004, -5.69404874e-005, -9.21884057e-005,
          -9.52552946e-005, -7.36122456e-005, -1.04443694e-004,
          -7.97301182e-005, -6.12960357e-005, -4.93247717e-005,
          -3.11795666e-005, -4.90252296e-006, -3.41999839e-005,
          -9.58030432e-005, -1.06200532e-004, -1.08000131e-004,
          -1.56608643e-004, -8.86531998e-005, -8.46755356e-005,
          -1.42337522e-004, -3.61113489e-005, -9.70107430e-005,
          -9.58598757e-005, 1.19209733e-004, 1.80460542e-004,
          -8.64921021e-005, -5.11969156e-005, -1.11904694e-004,
          -1.17160707e-005, -6.04514498e-005, -1.38597883e-004,
          1.40130898e-004, 2.85696296e-005, -6.89964581e-005,
          4.19431199e-005, -3.97074255e-005, 4.01588494e-007,
          -4.57863607e-005, -3.11646436e-005, 9.34135605e-005,
          7.39529469e-006, -1.70742878e-005, -5.09314959e-005,
          -5.89407045e-006, -2.47810985e-005, -6.55262193e-005,
          -1.32316170e-004, -1.10873640e-004, -1.10569330e-004,
          -1.11676469e-004, -2.61752084e-005, -4.52230561e-005,
          -1.81117903e-005, -5.58578831e-005, -9.08473594e-005,
          -1.08009532e-004, -1.01042358e-004, -1.40151795e-004,
          -1.16684896e-004, -7.49615720e-005, -7.03948899e-005,
          3.77130846e-006, -7.88457546e-005, -9.66171938e-005,
          -1.01757098e-004, -5.85720445e-005, -2.26106768e-005,
          -4.58214854e-005, 3.68003821e-005, 1.25794459e-005,
          -1.55858230e-004, 5.00593451e-005, 1.31014996e-004,
          5.29246499e-005, -4.77135427e-006, -1.01599235e-005,
          -4.35427974e-005, -6.56990742e-005, -7.80947448e-005,
          1.44701684e-004, -3.69870722e-005, -5.93265686e-005,
          -6.55193571e-006, -7.66534795e-005, -2.07352696e-005,
          5.11566432e-005, 5.72647223e-005, 1.78680893e-005,
          5.35160580e-005, 6.31070798e-005, 2.12189389e-005,
          3.95743809e-005, 7.60268595e-005, -1.90689880e-005,
          -8.60774744e-005, -4.14100832e-005, -3.16491241e-005,
          -5.75741542e-005, -2.83601767e-005, -5.24912721e-005,
          1.21730654e-005, -1.76560989e-005, -3.91487665e-005,
          -5.82266766e-005, -1.21547608e-004, -1.74711808e-004,
          -8.97174905e-005, -3.00926586e-005, -4.79204755e-006,
          2.74809354e-005, 3.40800143e-005, 1.23123260e-004,
          1.56550872e-004, 1.20259119e-005, 6.70461159e-005,
          3.58566504e-005, 1.63390345e-004, 1.42638353e-004,
          -1.07904882e-004, 7.02111065e-005, 1.85827041e-004,
          9.88141182e-005, 9.43660925e-005, 4.79636328e-005,
          -8.42056124e-006, 7.45613579e-005, 7.99502523e-005,
          5.13171763e-005, -2.54295246e-005, -1.42422978e-005,
          7.40739097e-006, -7.80487535e-005, -7.40471951e-005,
          1.22487909e-004, -5.66806011e-006, -1.10833163e-004,
          -1.52658704e-005, -4.33152272e-005, -6.24094318e-005,
          -7.06121864e-005, -2.92917794e-005, -3.64815751e-005,
          4.53554421e-005, 3.50848495e-005, 1.80634088e-005,
          -3.68033106e-005, -3.86625616e-005, -5.93528348e-005,
          -2.11769620e-005, -1.82245476e-005, -4.20184733e-005,
          -6.95099880e-005, -6.74104376e-005, -1.02776175e-004,
          -4.17040355e-005, -5.09438432e-005, -8.52192243e-005,
          -1.42377730e-005, 3.12579650e-005, 3.50417613e-005,
          3.08894499e-007, -8.17060645e-005, -5.19092828e-005,
          -6.67058557e-005, 4.20059223e-005, 2.02881783e-004,
          -2.28519298e-006, 1.97747049e-005, 1.64980171e-004,
          1.83251163e-004, 6.77994321e-005, 2.23355783e-005,
          2.22247163e-005, 9.13260592e-005, 8.63622918e-005,
          -6.74053069e-007, -1.93537198e-005, 9.79192737e-006,
          2.73173555e-005, -1.93651813e-005, -5.53710634e-005,
          7.79928596e-005, -7.79244874e-005, -1.76311354e-004,
          -7.82311108e-005, 1.56923506e-005, -2.96678645e-005,
          1.11017862e-005, 3.04067889e-005, 5.39195062e-005,
          1.72927554e-004, 2.16335306e-004, 1.86616424e-004,
          8.12134458e-005, 1.95741832e-005, -7.29372405e-005,
          -5.52427919e-005, -4.22684061e-005, -7.48930252e-005,
          -8.99820952e-005, -1.55616304e-004, -1.38969990e-004,
          -3.21765147e-005, 9.90581520e-006, -1.06404026e-004,
          -1.79212424e-004, -8.96406054e-005, -1.69041359e-005,
          5.97610197e-005, 2.83754275e-007, -1.49008760e-004,
          -5.30296966e-005, 1.16197691e-004, 2.50639103e-004,
          1.45784637e-004, 3.63375402e-005, 2.69392767e-005,
          1.30505156e-004, 5.95386846e-005, 1.20338489e-004,
          5.24375682e-005, 1.19098288e-004, 7.35725771e-005,
          -5.82706271e-005, 1.27075521e-006, 4.15653158e-005,
          -8.18487970e-005, -2.70614237e-005, -4.91948049e-005,
          5.89585070e-005, 3.56834571e-005, 7.51513435e-005,
          1.48999185e-004, 1.51314132e-004, 1.48688894e-004,
          1.27028979e-004, 6.26654364e-005, 5.77550491e-005,
          4.96165230e-005, -3.62453829e-005, -1.07915967e-005,
          4.18762938e-005, 3.46205998e-005, 1.95243119e-005,
          -4.12615045e-005, -8.31204816e-005, -1.38595089e-004,
          -1.73631168e-004, -2.09153804e-004, -1.94800101e-004,
          -1.14783536e-004, -1.18837866e-004, -5.21339716e-005,
          -7.80945265e-005, -4.14401620e-005, -9.62299600e-005,
          -1.10455338e-004, -2.85534516e-005, -2.42292535e-005,
          -1.41655517e-004, -1.53991656e-004, 2.06325694e-005,
          5.56932355e-006, 1.08450819e-004, 9.11439638e-005,
          1.45932121e-004, 3.16026926e-005, 1.23618331e-004,
          7.22850382e-005, 1.98615628e-004, 8.19771521e-005,
          -1.11255642e-004, 6.39648570e-005, 8.39667919e-005,
          -1.14589260e-004, -1.78624232e-005, 1.10985829e-005,
          1.19538403e-004, 1.13903414e-004, 9.49831665e-005,
          9.71524714e-005, 1.27309846e-004, 1.42961013e-004,
          -3.35913210e-005, -1.71412641e-004, -1.18896744e-004,
          -5.79085063e-005, -3.54042058e-005, -8.39231943e-005,
          -1.07590356e-004, -2.74397335e-005, -1.54950358e-005,
          -1.06947802e-004, -1.70158528e-004, -2.12865401e-004,
          -1.69808074e-004, -1.33375259e-004, -1.91117899e-004,
          -1.36687318e-004, -1.05572275e-004, -1.04141713e-004,
          -6.61202284e-005, -5.00088245e-005, -2.50763460e-005,
          9.61568949e-005, -2.10948674e-005, 8.55567862e-007,
          3.70773596e-005, -2.41495491e-005, 5.62093919e-005,
          -1.20366749e-004, -3.07757873e-005, 1.96066649e-005,
          5.32652266e-005, -7.24005440e-005, 1.00774469e-005,
          -2.94837191e-005, 2.13458596e-004, 9.21048777e-005,
          -7.88921679e-005, 3.45116896e-005, 7.01574390e-005,
          -1.43518875e-004, -8.68487623e-005, 6.30201394e-005,
          5.10142236e-005, 1.75349691e-004, -2.53558192e-005,
          -8.28487373e-006, -4.93764092e-005, -6.54908290e-005,
          -3.99993914e-005, -4.26716251e-005, -1.05858511e-004,
          -1.20229939e-004, 1.37607585e-005, 9.52091068e-005,
          2.00698059e-006, 3.57792014e-005, 1.73528369e-005,
          1.38253336e-005, -1.88149876e-004, -2.18975198e-004,
          -3.03959474e-004, -2.10366721e-004, -1.96842680e-004,
          -1.92357606e-004, -1.24694954e-004, -1.08787135e-004,
          -1.94446024e-004, -2.09037200e-004, -1.29465057e-004,
          -7.98908804e-005, -1.20667159e-004, -1.84654855e-005,
          5.05762728e-005, 1.90398961e-004, -2.19608155e-005,
          -1.78403265e-004, -8.06316821e-005, 8.71142329e-005,
          1.34498710e-004, -5.06548058e-005, 6.40445578e-005,
          2.74903450e-005, 1.54818903e-004, 1.11317504e-005,
          1.44713740e-005, -3.33836324e-005, -1.30596309e-005,
          -1.78399307e-004, -1.40626784e-004, -4.17644478e-005,
          8.92050812e-005, 4.86948957e-005, -1.49394808e-004,
          7.86943419e-005, 7.07348227e-005, -3.69927620e-005,
          -3.53832111e-005, -8.41655565e-005, -2.79234564e-006,
          -2.90094322e-005, -1.13609873e-004, -1.29310109e-004,
          2.56856515e-006, -6.67960048e-005, -1.51658576e-004,
          -1.30371031e-004, -1.73697888e-004, -2.93692050e-004,
          -2.29523881e-004, -1.52751527e-004, -3.22917804e-005,
          -1.55484086e-005, -3.23741115e-005, -6.53212337e-005,
          7.46518417e-005, 1.79971430e-005, 3.10104260e-005,
          2.25160984e-004, 1.64311132e-004, -2.51679565e-004,
          -7.71358536e-005, 6.09265662e-005, 2.65853218e-004,
          -3.45731314e-005, -2.28384190e-004, -2.44449475e-004,
          -6.52838253e-006, -5.74757769e-006, 5.28847449e-005,
          -4.36785631e-005, 1.01316087e-004, -6.35112374e-005,
          1.76338464e-004, 3.57704048e-005, -4.46246167e-006,
          -1.41427605e-004, 1.51213653e-005, -1.13356662e-004,
          2.27619439e-005, -4.11996698e-005, -3.54027943e-005,
          2.52958071e-005, 2.55543036e-005, 2.64392202e-005,
          1.01331840e-004, 1.11489382e-004, 1.07159271e-004,
          6.41239094e-005, 1.81207415e-005, 5.78479958e-005,
          -1.31132576e-004, -1.31032837e-004, -7.35745634e-005,
          -1.45388301e-004, -1.99118422e-005, -3.08888993e-005,
          -1.19392724e-004, -1.02456514e-004, -1.26869982e-005,
          1.15850016e-004, 1.16279094e-004, 9.68104650e-005,
          1.48758540e-004, 1.67901046e-004, -4.78865659e-005,
          -2.17673107e-004, -5.83084220e-005, 3.65662818e-005,
          -2.08766956e-004, -3.94263712e-004, 1.20238277e-004,
          -1.86449306e-005, -1.17373864e-004, -2.04066964e-004,
          -1.85616489e-004, -8.27939148e-005, -7.75947628e-005,
          -5.53921527e-005, -1.37090843e-004, -9.54280767e-005,
          1.89145314e-004, -9.34134223e-005, 8.79268464e-006,
          1.00345394e-004, -9.25971253e-005, -6.91689934e-007,
          1.10042580e-004, 1.40862830e-004, 1.05716623e-004,
          1.59390581e-007, 2.64030677e-005, -1.41760771e-004,
          6.34456301e-005, -1.95565781e-006, -1.08017543e-004,
          1.45063619e-004, 1.17996235e-004, 2.07562061e-005,
          1.39185897e-004, -1.01859303e-004, -4.85115124e-005,
          -2.29535272e-006, 1.83203538e-005, 2.12239138e-005,
          -2.35485408e-004, -3.16366262e-004, -1.40825257e-004,
          -3.21923108e-005, 1.81150535e-004, -1.73976860e-005,
          1.85319254e-006, 2.09873804e-004, 2.79524684e-004,
          -5.62656533e-005, 3.79774501e-005, 1.19780372e-004,
          -8.26891483e-005, -9.05104753e-005, -5.36622865e-005,
          1.13684895e-004, -8.02414797e-005, -2.56949104e-004,
          -2.05873963e-004, -1.83791217e-005, -1.72810454e-004,
          -1.76218819e-005, -1.91052168e-004, -4.46842278e-005,
          1.39881755e-004, -1.41505792e-004, -4.90069567e-007,
          1.01248508e-004, -8.44412934e-005, -1.44519538e-004,
          2.10466358e-004, 1.61344273e-004, 1.36245493e-004,
          6.19955172e-005, -2.47221265e-004, -2.01580944e-004,
          -1.33099340e-004, -7.15707720e-005, -1.68919360e-004,
          -1.28321248e-004, 7.61675547e-005, -4.51692504e-005,
          -2.01775969e-004, -7.40579208e-006, -2.84466887e-006,
          5.27436932e-005, 1.48471983e-004, 5.64567417e-005,
          -9.72580074e-006, -2.18497269e-004, -2.76462350e-004,
          -5.42727066e-005, 1.08421693e-004, 5.85300622e-005,
          -3.70203634e-005, 9.26348378e-007, 2.90233966e-005,
          -9.21882602e-005, -9.00681916e-005, 3.74065203e-005,
          3.60617696e-006, -1.29075561e-005, -2.09965976e-004,
          -4.56216594e-006, -7.88321631e-005, -2.22614457e-004,
          -1.00941863e-004, -6.04580600e-006, -1.18010401e-004,
          1.05524166e-004, -1.35228678e-004, 8.37788830e-005,
          1.51959190e-004, -9.59705503e-005, 1.78460778e-005,
          1.55889429e-004, -5.13994237e-005, -6.71504167e-005,
          1.27662177e-004, 1.06240193e-004, 1.24527345e-004,
          -6.98737058e-005, -3.71956157e-005, -1.00794732e-005,
          7.62793479e-006, 2.27016317e-005, 9.05073684e-005,
          5.82892571e-005, 1.14076422e-004, 2.43147315e-005,
          -6.45295659e-005, 2.31851391e-005, 6.21844592e-005,
          -5.60897242e-005, 6.40234939e-005, 7.82996140e-005,
          5.28584133e-005, -1.32469595e-005, -2.66902760e-004,
          -1.01044512e-004, -3.99202654e-005, 1.54667359e-004,
          1.48460327e-004, 1.20907360e-004, 1.29432679e-004,
          3.67560206e-005, -1.06373991e-004, -2.00141425e-004,
          -1.19117591e-004, -8.17173786e-005, -2.65617909e-005,
          -4.01294601e-005, 9.41032413e-005, -2.01318151e-004,
          -2.09891641e-005, 1.01209444e-004, -1.24859173e-004,
          -1.34491011e-005, -2.13414067e-004, 6.92275571e-005,
          1.03284219e-004, -4.02552105e-005, -3.53957366e-005,
          6.77839707e-005, -9.40338487e-006, -7.95155211e-005,
          9.80637487e-005, 7.12226320e-005, 6.54371615e-005,
          -3.10385039e-005, 1.72923799e-004, 4.44659308e-005,
          -8.68206916e-005, -2.60906934e-004, -1.76651360e-004,
          -1.43026962e-004, -8.46620605e-005, -4.78589245e-005,
          7.00072349e-007, -3.58860671e-005, 1.26457642e-004,
          -1.12222324e-005, -5.33063067e-005, 7.03393889e-005,
          4.78368020e-005, -2.68403728e-005, -1.38993593e-004,
          -7.82137868e-005, -1.28139378e-004, 5.82251960e-005,
          -7.99209738e-006, 1.09252534e-004, 2.28659686e-004,
          3.16578284e-004, 1.75289315e-004, 4.15752220e-005,
          3.47257374e-005, 9.89380351e-005, 8.99604402e-006,
          -1.30319982e-004, 8.66995615e-005, -2.33129922e-005,
          1.57944453e-006, 1.39637632e-004, -1.16112227e-004,
          -1.86886842e-004, -1.34430040e-004, 1.32474364e-004,
          5.97903545e-006, -7.43977726e-005, 5.31728892e-006,
          4.14788374e-005, 6.69257861e-006, -9.08263683e-005,
          1.67147373e-005, 6.73657560e-005, 4.24492173e-005,
          -7.25686914e-005, -4.69041188e-005, -1.08918473e-004,
          -1.53931323e-004, -2.12204366e-004, -1.60800948e-004,
          -8.35792380e-005, -5.96198188e-005, -5.62129680e-005,
          -9.00689702e-005, -4.41500815e-005, 2.55224040e-005,
          3.75973650e-005, -1.45099457e-005, 7.26616781e-005,
          3.09206553e-006, 7.03720361e-005, -7.10090026e-005,
          -2.30895457e-004, -1.02419090e-005, -1.13709015e-004,
          -1.15257201e-007, -1.54922003e-004, -1.41131488e-004,
          -6.31192306e-005, -1.15049486e-004, -1.22015052e-004,
          -1.26852174e-004, 8.28957272e-005, 4.15006580e-005,
          -1.23930758e-005, 4.91760075e-005, 5.91730386e-005,
          7.62067430e-005, 2.52734433e-004, -2.59820808e-006,
          -1.27625492e-004, -4.09103013e-005, 7.21330434e-005,
          -9.25484437e-006, -4.81235111e-005, 1.05415573e-004,
          4.33800778e-005, 7.44690715e-006, -2.42282149e-005,
          -1.41603887e-004, 8.65260445e-005, 2.04699300e-005,
          -9.58676756e-005, -1.88902457e-004, -1.19486904e-004,
          -3.18825681e-004, -2.06703990e-004, -9.05201450e-005,
          -2.43989161e-005, -1.24338854e-004, -2.07047560e-004,
          -1.50575521e-004, -6.95581912e-005, 9.37326477e-005,
          3.03303805e-005, 8.07977121e-005, 7.16798022e-005,
          3.82417165e-005, -9.86663417e-006, -3.48012181e-005,
          -1.47021929e-004, -1.56913811e-004, -7.53459753e-005,
          -3.47113928e-005, -1.93119085e-005, -7.16525465e-005,
          -9.89830805e-005, -9.66481093e-005, -1.90128958e-005,
          -2.69430693e-005, -2.85785591e-005, -1.04832952e-005,
          -1.89881612e-005, 1.73288092e-004, 2.01099378e-004,
          1.31868990e-004, 1.90633989e-004, 7.76698653e-005,
          -1.06791427e-004, -2.89918407e-005, 9.80216064e-005,
          -6.33341333e-005, -1.93189953e-005, 6.88353321e-005,
          -1.06939238e-004, 2.89118725e-005, 2.96558628e-005,
          -2.07943493e-004, 1.42390170e-004, 5.02887415e-005,
          -2.36350643e-005, -2.22393690e-004, -2.19367372e-004,
          -1.38944582e-004, -1.12510876e-004, -1.75554324e-005,
          4.42418714e-005, -3.63152867e-005, -1.14034134e-004,
          -7.66245212e-005, 2.63442307e-005, 1.23444843e-004,
          1.31554960e-004, 7.59356553e-005, 8.91137825e-005,
          8.95611738e-005, 4.11277979e-005, -1.60473446e-005,
          -1.51535991e-004, -1.63068340e-004, -1.90489634e-004,
          -1.32585352e-004, 8.30600184e-005, 1.85837518e-004,
          1.81385170e-004, 1.30343149e-004, -2.99093681e-005,
          8.01586793e-005, 9.03499167e-005, 6.68454595e-005,
          -8.29329292e-005, 5.43964743e-005, 1.31226814e-004,
          1.95818779e-004, 9.69350003e-005, 1.22290105e-004,
          5.59914770e-005, 4.12556583e-005, 1.44521924e-004,
          -8.35631145e-005, -4.96304783e-005, -2.47359803e-005,
          -1.38336773e-005, -1.00427962e-004, 2.85953120e-005,
          -1.12718299e-004, 9.68792083e-005, 9.66494263e-005,
          4.46896556e-005, -5.52445126e-005, -1.57797447e-004,
          -1.76364643e-004, -1.00827936e-004, 7.98853216e-006,
          7.10067325e-005, -7.86067321e-005, -1.32348505e-004,
          -2.40455120e-005, 3.41283921e-005, 2.30906662e-005,
          -3.88736844e-005, -2.60419220e-005, -6.60918304e-005,
          -2.85132955e-005, 2.39577839e-005, 3.11990152e-005,
          -8.94745172e-005, -3.85844942e-005, -2.73196038e-005,
          -4.41215416e-005, -3.21494808e-005, 2.29962802e-006,
          -3.79351150e-005, -2.29635771e-005, -5.12446095e-005,
          2.13952280e-005, -1.33368094e-005, -8.17621840e-005,
          -6.86154744e-005, -2.46390064e-005, 1.12677408e-004,
          2.60959263e-004, 1.10721405e-004, 2.97243459e-005,
          -2.59583194e-005, 2.72285779e-005, 1.89923754e-004,
          -4.65676931e-005, -1.33308378e-004, -8.69368378e-005,
          -1.43140915e-005, -7.57809903e-005, 8.71135489e-005,
          -6.05414098e-005, 9.22239924e-005, 4.35715265e-005,
          1.25030338e-005, -5.77987012e-005, -1.76148111e-004,
          -2.02546362e-004, -1.08899134e-004, -1.21949794e-004,
          -1.43468438e-004, -1.87496727e-004, -1.61723467e-004,
          -1.26285304e-004, -1.99887581e-005, -1.22243946e-004,
          -1.84850112e-004, -6.58169811e-005, -5.84191002e-005,
          -1.32971589e-004, -1.05094892e-004, -4.17642768e-005,
          -5.51106568e-005, -1.38173666e-004, -3.00927383e-007,
          1.09325949e-004, 1.35016540e-004, -5.16832142e-006,
          -1.16948431e-004, -2.17028137e-004, -2.19618974e-004,
          -2.36650245e-004, -1.16540177e-004, -6.14677629e-005,
          -9.69037501e-006, 8.23117080e-006, 5.66915442e-005,
          1.61316711e-004, 3.27695125e-005, 2.12970535e-005,
          4.70274899e-005, 1.02932827e-004, 2.25417971e-004,
          -4.25247936e-006, -1.59882882e-004, -8.98953658e-005,
          3.20847939e-005, -1.14038776e-005, 6.43491439e-005,
          -6.34611060e-005, 7.49767496e-005, -2.47126864e-005,
          1.48720710e-005, -7.09224114e-005, -1.62551267e-004,
          -1.67450897e-004, -9.21254687e-005, -1.10141438e-004,
          -1.75977199e-004, -2.95080943e-004, 1.31909892e-005,
          -2.57751126e-005, -7.27635997e-005, -1.42260629e-004,
          -1.84659002e-004, -1.65893609e-004, -6.84850311e-005,
          -1.48489053e-004, -1.84032440e-004, -2.62988964e-004,
          -2.39910471e-004, -2.19359456e-004, -5.56674277e-005,
          1.00096870e-004, 2.04976037e-004, 2.35076950e-004,
          1.29191409e-004, 5.33736784e-005, 4.28552630e-005,
          -3.25730871e-005, -6.20054707e-005, -3.50375303e-005,
          -5.96036330e-007, -4.63997094e-005, 6.43018138e-005,
          8.05546733e-005, -8.18948683e-006, 2.54762635e-005,
          1.50166801e-004, 1.79356939e-004, 2.51032732e-004,
          2.40643094e-005, -1.96835419e-004, -1.36936607e-004,
          9.77876261e-005, 8.40506036e-005, -3.64482548e-005,
          -4.26443103e-006, 7.13826012e-005, -2.98678606e-005,
          2.77802087e-006, -7.79955299e-005, -1.50504085e-004,
          -1.46347185e-004, -7.31518303e-005, -9.40109021e-005,
          -1.49042084e-004, -8.17868204e-005, 1.29948268e-004,
          4.42726669e-005, -1.42714955e-004, -1.82888878e-004,
          -2.71523313e-004, -1.02102924e-004, -4.53891880e-005,
          -1.09492736e-004, -2.07931007e-004, -9.02497504e-006,
          -7.21847027e-005, -1.39141179e-004, -1.34721820e-004,
          5.45499142e-006, 1.35740542e-004, 3.20529653e-004,
          3.25284200e-004, 1.80966905e-004, 1.62749726e-004,
          3.50101182e-005, 7.20041426e-005, 5.03471711e-005,
          -1.00089965e-005, 1.65249876e-005, 1.50285166e-006,
          6.32080119e-005, -1.96971050e-005, 3.45981134e-005,
          1.70801402e-004, 1.32000452e-004, 2.50508252e-004,
          -4.52695940e-006, -1.26824525e-004, -1.30047891e-004,
          9.79399920e-005, 1.65305697e-004, -4.66480888e-005,
          -9.88929460e-005, 7.19075906e-005, 3.95519010e-006,
          -2.74800877e-005, -5.12819934e-005, -7.93102663e-005,
          -9.66398875e-005, -4.29633656e-005, -9.54060233e-005,
          -1.28570773e-005, 1.76382411e-004, 1.52852735e-004,
          -4.79825167e-006, -2.00270268e-004, -2.98784347e-004,
          -4.01674624e-004, -1.92734689e-004, 8.30390709e-005,
          2.18078512e-005, -8.86472044e-005, -3.62027458e-005,
          -6.35168035e-005, 1.77707116e-005, -2.34132294e-005,
          5.60882982e-005, 1.74221321e-004, 2.50932324e-004,
          4.87073179e-004, 3.26606591e-004, 2.94621568e-004,
          1.62716955e-004, 1.44948310e-004, 1.00248828e-004,
          3.26302834e-005, 3.30843905e-005, -5.08093617e-005,
          -4.84158700e-005, 2.21697828e-005, 2.86168815e-005,
          2.04315744e-004, 1.06095860e-004, 1.96708148e-004,
          -7.74500731e-005, -1.93418018e-005, -1.59887029e-004,
          7.35279173e-005, 2.68293254e-004, -1.04839983e-005,
          -1.10640838e-004, 6.13006487e-005, -4.22284356e-005,
          -2.91725428e-005, -1.03511238e-005, -5.32611011e-005,
          -1.01010453e-004, -4.79931914e-005, -1.51367976e-005,
          1.10009540e-004, 1.71539621e-004, 5.12710430e-005,
          -6.23336819e-005, -6.75222782e-006, -4.06320614e-005,
          -9.70841138e-005, -2.22036215e-005, 2.33394112e-005,
          1.19789031e-004, 2.37545537e-005, 2.66238894e-005,
          -6.01675965e-005, 4.84390148e-005, -1.33234280e-005,
          -7.06181709e-006, 1.46329287e-004, 2.57641601e-004,
          3.46259709e-004, 5.86530543e-004, 3.91958747e-004,
          2.75033381e-004, 1.59136762e-004, 1.21859441e-004,
          5.79399457e-005, 2.43484874e-006, -4.97217152e-005,
          -1.17213960e-004, 2.43803515e-005, 6.94479095e-005,
          9.72674970e-005, 4.57657479e-005, 1.19718010e-004,
          -8.49883072e-005, -1.54178713e-006, -8.42479567e-005,
          -3.91956710e-005, 1.50327294e-004, -4.87687830e-005,
          -1.36405957e-004, 5.40848159e-005, -1.57482882e-005,
          -7.89130281e-005, 4.31787612e-006, -4.61179188e-005,
          -5.63358954e-005, -1.36986186e-004, -4.42400742e-005,
          3.07419868e-005, 6.05034620e-005, 4.46079412e-006,
          -1.16109753e-004, -6.59359557e-006, 9.12859032e-005,
          1.52583729e-004, 2.56901112e-004, 2.68391945e-004,
          1.27643216e-004, 8.51895456e-005, 1.55383459e-004,
          -1.84473520e-005, -9.86829691e-005, 1.25941770e-005,
          3.97201766e-005, 1.07399479e-004, 2.27231954e-004,
          2.56336119e-004, 4.62437660e-004, 4.03108163e-004,
          4.00279387e-004, 2.11396240e-004, 1.40224744e-004,
          5.21604416e-005, 2.83395657e-005, -3.20448162e-005,
          -1.29113614e-004, 4.30139735e-005, 5.50738550e-005,
          1.79910767e-005, 5.73517464e-005, -7.47952390e-006,
          -1.32570596e-004, 3.40930819e-005, -1.09284287e-004,
          -3.49686961e-005, 1.09011082e-004, -1.02037615e-004,
          -2.27626268e-004, -4.33968962e-005, 6.18851700e-005,
          -4.15536742e-005, 7.11797184e-005, -3.75465679e-005,
          -1.04771003e-004, -1.60181909e-004, -1.19686454e-004,
          -1.69227224e-005, 1.27756939e-004, -1.52837383e-005,
          -4.90537059e-005, -8.91888922e-005, -3.73210823e-005,
          -8.01107890e-005, -2.42219940e-005, 1.20903009e-004,
          4.78114489e-005, 7.89245605e-005, 1.21474339e-004,
          3.77754986e-005, -3.35069126e-005, -8.07456672e-005,
          -1.06341809e-004, -7.66688390e-005, 9.45788852e-005,
          1.32757268e-004, 1.38609204e-004, 4.54284775e-004,
          3.36673955e-004, 3.00113141e-004, 1.48589534e-004,
          1.12144509e-004, 2.41444759e-005, -5.98233601e-005,
          -1.02426726e-004, -2.22914605e-005, 6.19330167e-005,
          7.28331142e-005, -4.16541916e-005, -1.98892289e-004,
          -2.45681760e-004, 2.50103367e-005, -8.66570117e-005,
          -8.70763542e-005, 4.03239865e-005, -3.33290373e-005,
          -2.53937702e-004, -9.03437031e-005, -7.80689061e-006,
          -3.40457809e-005, 1.97208446e-005, 2.35802145e-005,
          -9.85230799e-005, -6.66302949e-005, -9.74489285e-006,
          4.09988352e-005, 1.06736421e-004, 3.49389738e-005,
          1.63333534e-005, -3.75053060e-005, -1.97465715e-006,
          6.19202092e-006, 1.36008297e-004, 1.83414901e-004,
          1.31200955e-004, 1.30501357e-004, 7.19204836e-005,
          -6.16395409e-005, -2.04299038e-004, -2.88509647e-004,
          -3.37971462e-004, -3.22156615e-004, -1.56417489e-004,
          1.21103301e-004, 1.74112225e-004, 2.28405741e-004,
          3.41109902e-004, 2.32766368e-004, 2.17294466e-004,
          1.65423946e-004, 2.58989385e-005, -4.16276162e-005,
          -6.96692223e-005, -3.51793715e-005, 3.26887202e-005,
          4.82596442e-005, -3.81984864e-005, -1.47672268e-004,
          -2.06452401e-004, -2.08108293e-004, 3.63457802e-005,
          -1.83365220e-004, 5.39531429e-005, 2.69676070e-006,
          -7.62721320e-005, -1.69476225e-005, 1.45871245e-005,
          -1.18067283e-005, -6.24959648e-005, 3.54077711e-005,
          -2.32829534e-005, 4.14487222e-005, 1.57095259e-004,
          1.11144043e-004, 1.48508596e-004, 1.42291741e-004,
          1.01675236e-004, 1.41310971e-004, 1.05079809e-004,
          1.01823571e-004, 1.99584872e-004, 2.18172732e-004,
          2.60062545e-004, 2.55956111e-004, 1.94265813e-004,
          1.07762971e-004, 5.76373059e-005, -4.72454258e-006,
          -1.58795665e-004, -2.08153200e-004, 2.40208337e-005,
          1.83627766e-004, 3.24683206e-004, 1.35193739e-004,
          2.51279213e-004, 1.66501995e-004, 2.58354790e-004,
          1.73646520e-004, 3.00995343e-005, 2.39105375e-005,
          -9.22308609e-005, -2.79277829e-005, -5.71900018e-005,
          3.85010499e-005, 3.95874849e-005, 1.25204160e-005,
          -1.04514933e-004, -1.84297722e-004, -9.53926356e-005,
          -4.19373100e-005, 5.36137350e-006, 1.34119200e-005,
          -4.71492604e-005, 4.45445803e-005, -9.08147558e-006,
          -4.56183516e-005, -1.08646018e-004, -4.22616649e-005,
          -7.72518397e-005, 1.10610381e-006, 7.20362950e-005,
          1.23775142e-004, 1.68143903e-004, 2.41077039e-004,
          2.22579358e-004, 2.87479488e-004, 1.11521920e-004,
          3.02178410e-006, -5.05589996e-005, 1.60007203e-005,
          4.62361713e-005, -6.28472917e-005, -4.70553896e-005,
          -8.84384208e-005, -1.13781563e-004, -9.30886235e-005,
          1.03738428e-004, 1.91094790e-004, 1.30898523e-004,
          3.35537106e-006, -1.06865909e-005, 1.97688787e-005,
          8.94414734e-006, 1.04032741e-004, 1.11461122e-004,
          1.66424390e-004, 8.60885630e-005, -5.59862747e-005,
          -2.18928952e-004, 5.45990370e-005, -5.19394162e-005,
          -6.76627224e-006, 3.21974912e-005, 1.30021974e-004,
          -8.45119066e-005, -1.33144185e-005, -1.59404764e-004,
          -1.68167840e-004, 1.72846967e-006, -3.48607464e-005,
          -1.01287158e-004, -4.46282502e-005, 6.38344427e-005,
          -5.63311150e-005, -8.30343124e-005, -9.70063193e-005,
          -3.93634109e-005, 5.18584020e-005, 1.01541934e-006,
          6.35234828e-005, 8.78035571e-005, 1.28315020e-004,
          2.13511419e-004, 1.14577255e-004, 1.71843887e-004,
          3.60516351e-005, 1.74244760e-005, -1.24945072e-004,
          -1.93864733e-004, -1.22193989e-004, 7.72525236e-005,
          -1.02039696e-004, 4.34614158e-005, -7.54837602e-005,
          1.46374194e-004, 3.79115983e-004, 4.53721586e-004,
          1.97839123e-004, 3.89923734e-005, 3.35236691e-005,
          -8.26813557e-005, 1.20690180e-004, 1.46072271e-004,
          8.43738817e-005, 1.63701072e-004, -3.51284034e-005,
          -3.13054072e-004, 4.89855520e-005, -1.06860871e-005,
          1.10084975e-005, 9.43511841e-005, 1.89607657e-004,
          -1.22551952e-004, -3.04457103e-006, -1.32389425e-004,
          -1.70214757e-004, -1.38526913e-004, -9.16105419e-005,
          -1.03500715e-005, -1.56234135e-004, 2.65100743e-006,
          4.23734127e-005, -9.04605040e-005, -1.70692016e-004,
          -6.84163679e-005, 2.65074923e-005, 4.73275395e-005,
          -4.37357176e-006, -2.57141892e-005, 1.41707191e-004,
          1.01066755e-004, 8.46267812e-006, -1.72853528e-004,
          -2.76106817e-004, -1.68130529e-004, -2.76446663e-004,
          -2.77215382e-004, -2.05727149e-004, -2.42683163e-004,
          -2.05436445e-004, -2.10669066e-004, -2.10513681e-004,
          2.44057155e-004, 4.89893369e-004, 4.96354536e-004,
          2.73455167e-004, 1.16608520e-004, -2.97757306e-005,
          -5.29724748e-005, 9.20974635e-005, 1.47269122e-004,
          4.07049038e-006, 9.38476514e-005, -1.29486449e-004,
          -1.86774967e-004, -3.98291268e-005, 4.47109778e-005,
          -1.02729005e-004, 5.97562757e-005, 1.44500853e-004,
          -1.20393350e-004, -2.97873503e-005, -5.68318865e-005,
          -1.56894239e-004, -1.41149649e-004, -1.06421590e-004,
          -7.53653876e-005, -1.69853593e-004, -2.54699462e-005,
          -9.29407815e-006, -1.42195640e-005, -1.18759002e-004,
          -8.78730134e-005, -1.99920632e-005, 6.29701753e-005,
          4.30294822e-005, 4.45519108e-005, 5.52905367e-005,
          1.58045132e-005, 9.62727718e-005, -7.14996486e-006,
          -2.11099796e-005, -3.64494372e-005, -1.46981329e-004,
          -1.73840803e-004, -1.51111759e-004, 8.95518751e-005,
          9.15208657e-005, 1.57171846e-004, 1.27186126e-004,
          1.63341130e-004, 2.00594412e-004, 1.95857676e-004,
          2.13554260e-004, -1.46408620e-005, -4.15060167e-005,
          -8.05454983e-005, 6.93090187e-005, 1.41509241e-004,
          -2.20106340e-005, -7.40227624e-005, -2.44227238e-004,
          -7.58331007e-005, -5.81788117e-005, -1.96012170e-005,
          -1.12088259e-004, 1.50748028e-005, 1.43383586e-004,
          -6.17368423e-005, -6.20315259e-005, -7.92636820e-006,
          -1.27919455e-004, -1.98903508e-004, -1.01240963e-004,
          -9.36877259e-005, -2.07858029e-004, -2.90043608e-005,
          7.71029499e-006, 1.02445789e-004, -9.32012117e-005,
          -4.19662974e-005, -6.18892009e-005, 1.36302706e-005,
          2.59903409e-005, -1.37540655e-006, -5.52007477e-005,
          -6.83791586e-005, -2.16851568e-005, 3.13816745e-005,
          -3.33376156e-005, -1.11756752e-004, -9.74350696e-005,
          -8.50397628e-005, -9.74156137e-006, 1.66494021e-004,
          8.17206383e-005, 4.03476224e-005, 3.56289565e-005,
          1.45945654e-004, 1.82316158e-004, 2.04442054e-004,
          8.90229785e-005, -3.37774800e-005, -7.09473607e-005,
          -1.13338465e-005, 6.01946485e-005, 6.50367729e-005,
          -6.26884212e-005, -1.79064125e-004, -2.52734404e-004,
          -1.03217128e-004, -1.32877380e-004, 2.16729077e-005,
          -8.03916701e-005, -3.07718292e-005, 9.79896067e-005,
          -1.02290163e-004, -7.91208367e-006, -1.25903200e-004,
          -5.97040016e-005, -1.91805011e-004, -1.51691624e-004,
          -6.74142939e-005, -4.50071675e-005, -5.50928016e-005,
          1.22060439e-004, 5.40961992e-005, -5.31740297e-005,
          -8.37007901e-005, -6.79036384e-005, -2.77995605e-005,
          -5.30953657e-005, -4.38011302e-005, -1.09234381e-004,
          -1.31702938e-004, -9.74218274e-005, -7.93718027e-006,
          4.24981663e-005, -6.32559968e-005, -1.68636208e-004,
          -1.57396003e-004, -8.44516107e-005, -3.34975921e-005,
          -2.66220541e-005, 1.64386256e-005, 8.15261301e-005,
          1.05900501e-004, -2.94979054e-006, -2.08313268e-005,
          -5.14107778e-005, -1.43286579e-005, -9.37618242e-005,
          7.20578973e-005, 7.03054830e-005, 2.33408591e-005,
          -5.25137584e-005, -9.51662078e-005, -2.57799373e-004,
          -1.11817862e-004, -1.56042457e-004, 7.92584615e-005,
          -2.75905841e-005, -1.16556666e-005, 5.96070713e-005,
          -1.20541212e-004, -3.51525305e-005, -1.74477827e-004,
          -9.46934961e-005, -1.79706301e-004, -9.03309920e-005,
          3.36568737e-005, 7.22316399e-005, -5.29800818e-005,
          2.22685812e-005, 3.97848817e-005, -6.70741138e-005,
          -1.91214174e-004, -9.29146699e-005, -7.40287505e-005,
          -5.22234259e-005, -8.18811604e-005, -1.61616888e-004,
          -1.83786673e-004, -1.46550767e-004, -1.71813794e-004,
          -1.53217057e-004, -1.87127167e-004, -2.30655685e-004,
          -1.43669124e-004, -5.70268639e-005, 1.08046675e-006,
          -3.72609029e-005, -1.04147985e-004, -1.75497407e-005,
          6.80815283e-005, 3.54197255e-005, -7.96489330e-005,
          -7.03179612e-005, -1.14346200e-004, -6.97847208e-005,
          2.70073851e-005, 1.27782050e-005, -1.44315600e-005,
          -4.80768867e-005, -2.72005746e-005, -2.95859209e-004,
          -6.32900919e-005, -2.02093404e-004, 1.69930398e-004,
          -3.70981725e-005, -4.80737763e-005, 1.82019576e-005,
          -8.96145793e-005, -1.28311760e-004, -1.27270774e-004,
          -1.05643194e-004, 9.35655626e-005, 2.63333932e-005,
          1.04509354e-005, 7.69106264e-005, -5.93641162e-005,
          -1.63480508e-005, 2.08416495e-005, -5.90985765e-005,
          -1.69453459e-004, -1.49767409e-004, -7.58568567e-005,
          -5.42225716e-005, -1.01216217e-004, -9.96286399e-005,
          -1.61024771e-004, -1.10964640e-004, -9.24260603e-005,
          -8.42773879e-005, -9.89999244e-005, -1.26222571e-004,
          -1.37364754e-004, -1.55426489e-004, -1.35351773e-004,
          -1.37223309e-004, -8.27375334e-005, -2.88757910e-005,
          4.36798189e-007, -1.70887051e-005, -1.60778836e-005,
          -4.13179441e-005, -3.98599623e-005, 1.75905843e-005,
          6.77131356e-006, -2.43153263e-005, 2.65639646e-005,
          -8.50356446e-005, -1.94754422e-004, -2.34945415e-004,
          9.95127812e-006, -1.01060388e-004, -3.09993557e-005,
          -5.98598890e-005, -1.23757505e-004, 3.20527542e-005,
          -2.29329409e-004, -4.22609046e-005, -7.06819555e-005,
          1.00504738e-004, 1.70221494e-004, 8.40282155e-005,
          3.75698755e-006, 1.20915720e-004, -2.65191920e-005,
          3.62705359e-005, 8.37434854e-005, 3.46746515e-006,
          -7.60300609e-005, -8.33765225e-005, -8.39582572e-005,
          -5.71131895e-005, -5.40137880e-005, 1.08393988e-005,
          7.49476294e-006, -6.68712164e-005, -4.58281320e-005,
          -4.59445619e-006, 2.15756172e-005, -5.22739992e-006,
          -8.59522770e-005, -6.50504662e-005, -6.79994118e-005,
          -2.48776360e-005, 4.63257584e-006, 9.60791567e-006,
          -1.17936261e-005, -1.12294911e-005, -2.01688144e-005,
          -1.20501623e-004, -2.62624253e-005, 1.74333109e-005,
          -9.73822316e-005, -3.05916801e-005, -2.65344934e-005,
          -7.82456627e-005, -8.08611658e-005, -1.28628613e-004,
          -9.10364615e-005, -3.10353680e-005, -1.18592958e-004,
          1.12083453e-005, -2.04150172e-004, 3.53776959e-005,
          -2.12181258e-004, 6.13184384e-005, 1.98480138e-005,
          4.11108340e-005, 1.64915531e-004, 9.94375296e-005,
          -6.84142578e-005, -6.13160373e-005, -3.66198037e-005,
          -4.85229975e-005, 8.15928724e-005, 3.76462776e-005,
          -4.58109753e-005, 1.91550862e-005, -3.52557581e-005,
          -4.15199393e-005, -4.13854195e-006, 5.50436052e-005,
          7.09070446e-005, 4.18679338e-005, 1.44213982e-005,
          7.23540870e-005, 8.36150648e-005, 5.36837870e-005,
          1.48091303e-005, 9.20992807e-006, -9.79152810e-006,
          -2.07292469e-005, -9.32534094e-005, -8.30792924e-005,
          -7.66910525e-005, -1.64108802e-004, -1.10981775e-004,
          -9.89199034e-005, 2.08602232e-005, -7.80924893e-005,
          -1.38945572e-004, -2.81044595e-005, -1.78166538e-005,
          4.53572793e-005, -9.64384526e-005, -1.08426226e-004,
          -1.76729853e-004, -6.06987523e-005, 2.14219126e-005,
          -4.26505976e-005, -2.21661394e-004, 1.29768916e-004,
          -1.76139656e-005, 5.68045325e-005, 5.69706754e-006,
          7.90213089e-005, 1.15727795e-004, 2.00847964e-004,
          2.26432803e-005, -6.24771928e-005, 2.75011244e-005,
          -8.30749195e-005, 2.14826650e-005, 1.53099372e-005,
          3.73188486e-005, -2.50062276e-005, 5.90283162e-006,
          -1.13704409e-005, 2.01011626e-005, 3.73731127e-005,
          2.09134523e-005, 2.39141864e-005, -2.33370392e-005,
          -4.10405300e-005, -9.90811805e-006, -9.15510827e-006,
          -3.34032775e-005, -3.81632235e-005, -9.42933730e-006,
          -5.54439102e-005, -1.13254464e-004, -1.04997525e-004,
          -1.16646319e-004, -1.74258603e-004, -9.83030695e-005,
          -5.92053584e-005, -5.65928131e-005, -1.02522346e-004,
          -1.82755743e-004, -2.64141509e-005, 1.04010096e-005,
          1.17393638e-005, -1.16683615e-004, -9.29278322e-005,
          -1.57108458e-004, -1.96429792e-005, 4.04591847e-005,
          -7.59064642e-005, -9.27309447e-005, 1.86901700e-004,
          2.68806772e-008, -3.39673061e-005, 3.16168698e-005,
          -5.58036409e-005, -2.74098261e-006, 6.68300490e-005,
          -8.53016991e-006, -1.53171510e-004, -7.07974832e-005,
          -5.92611977e-005, -1.55624057e-005, 7.27600782e-005,
          6.69510409e-005, 1.00645411e-004, -4.52851737e-006,
          1.33270645e-004, 7.49204482e-005, 1.34258546e-004,
          7.60280673e-005, -3.47079617e-006, -1.49356769e-004,
          -1.32903617e-004, -7.66635494e-005, -6.41776132e-005,
          -5.57950370e-005, -2.42221595e-005, -2.74925460e-005,
          -1.18902739e-004, -2.05083852e-004, -1.84651799e-004,
          -1.61744072e-004, -1.29656808e-004, -6.97161522e-005,
          -1.15672905e-004, -6.84363986e-005, -7.35086724e-005,
          -8.55928010e-005, -6.60547767e-006, 6.95814524e-005,
          -4.84164993e-005, -1.28879779e-004, -1.02288999e-004,
          -1.17760530e-004, 3.62869687e-005, -3.79226803e-005,
          -8.54453319e-005, 8.31948782e-005, 2.39099812e-004 ]
   decision_functions:
      -
         sv_count: 1
         rho: -5.4380480632622232e+000
         alpha: [ 1. ]
         index: [ 0 ]
