%YAML:1.0
my_svm: !!opencv-ml-svm
   svm_type: C_SVC
   kernel: { type:LINEAR }
   C: 2.5000000000000000e+000
   term_criteria: { epsilon:1.1920928955078125e-007, iterations:1000 }
   var_all: 900
   var_count: 900
   class_count: 2
   class_labels: !!opencv-matrix
      rows: 1
      cols: 2
      dt: i
      data: [ 0, 1 ]
   sv_total: 1
   support_vectors:
      - [ -4.46544737e-001, -3.57496619e-001, -3.60058337e-001,
          1.19656906e-001, 9.38418135e-002, 1.62997898e-002,
          5.15269220e-001, 5.15293717e-001, -1.56789213e-001,
          -1.89927131e-001, -3.25626761e-001, 4.22058612e-001,
          1.30672678e-001, 1.67091563e-001, 1.07819915e-001,
          1.30164653e-001, 4.05965626e-001, 4.43508953e-001,
          -4.49801832e-002, 4.16655302e-001, 5.20860970e-001,
          1.77329063e-001, -6.20389760e-001, -2.48235852e-001,
          2.52751231e-001, 5.31246006e-001, 5.41637421e-001,
          -8.46978575e-002, -2.78616529e-002, -2.41426066e-001,
          -4.47577775e-001, -1.00497699e+000, 1.73091084e-001,
          3.67878377e-001, 6.97121441e-001, 3.16102624e-001,
          2.81513445e-002, -1.46336466e-001, 4.81756717e-001,
          2.06063092e-001, 6.00798070e-001, 9.34064314e-002,
          -1.48185834e-001, 1.45609230e-001, 5.53783834e-001,
          -2.37349570e-001, 2.82149374e-001, -1.09524876e-001,
          3.12019378e-001, 4.79391724e-001, -2.28388046e-004,
          -3.21525365e-001, -4.64485623e-002, -2.57952631e-001,
          -2.67863106e-002, -6.28063381e-002, 2.55341202e-001,
          -3.24972034e-001, -3.70780647e-001, 9.57513228e-002,
          4.51547801e-001, 4.57081437e-001, 6.09132469e-001,
          2.70504594e-001, 1.83390118e-002, -9.75965336e-003,
          -5.69423199e-001, -7.21722960e-001, -2.10543245e-001,
          3.39593083e-001, -6.34299442e-002, 1.58316433e-001,
          1.34874076e-001, -1.68595463e-001, -3.02189499e-001,
          -2.62655746e-002, -9.98216793e-002, 7.89595395e-002,
          3.11021842e-002, 6.16164207e-001, 5.75679183e-001,
          2.42520496e-001, 3.69020581e-001, -1.70562759e-001,
          -4.98836040e-001, -4.70526606e-001, -3.58891003e-002,
          4.17407960e-001, 4.70339537e-001, 4.28309381e-001,
          5.09200729e-002, -7.39297211e-001, -6.43801153e-001,
          -3.62590343e-001, -5.22276819e-001, 1.47540122e-002,
          1.53190076e-001, -8.78100544e-002, 7.41854534e-002,
          4.11169790e-002, -3.51019382e-001, -7.39761353e-001,
          2.67902434e-001, -1.06527239e-001, -4.96007595e-003,
          -2.00457051e-002, -2.92532891e-001, -3.47023964e-001,
          3.82308841e-001, -3.10647525e-002, 2.75898486e-001,
          -2.10785136e-001, -2.36046821e-001, 2.17927948e-001,
          -5.98069690e-002, 3.44209582e-001, 2.67923981e-001,
          -3.11982840e-001, -1.09394550e+000, -4.86332038e-003,
          -2.33037025e-001, -3.60039383e-001, 2.82084465e-001,
          2.80945510e-001, -5.06571541e-003, 1.47434473e-001,
          1.99217975e-001, 1.11712612e-001, -5.49379826e-001,
          2.05671132e-001, -3.22952300e-001, 3.72267477e-002,
          -1.19398914e-001, 1.50839537e-001, 2.66166002e-001,
          -4.75949645e-001, -8.77010226e-002, -4.48995799e-001,
          2.76536554e-001, -4.89039540e-001, -2.57936567e-001,
          -2.66043901e-001, 1.16664514e-001, -3.29863101e-001,
          3.04123253e-001, -4.65496629e-002, 1.18054152e-001,
          2.89244018e-002, 3.17323774e-001, 1.45193115e-001,
          2.62980342e-001, 4.10493046e-001, 2.97022402e-001,
          -2.24576265e-001, -1.24321878e-002, 6.28777035e-003,
          1.79946885e-001, -1.45881206e-001, 4.47236240e-001,
          8.04270983e-001, 2.48366714e-001, 3.19238529e-002,
          1.02170728e-001, 1.09000437e-001, 2.19727635e-001,
          2.72861034e-001, 7.62825040e-003, -1.98385082e-002,
          -5.10889530e-001, -3.19543481e-001, 9.33008790e-002,
          -4.46681291e-001, 1.26320213e-001, 3.24275270e-002,
          4.55464512e-001, 5.10272205e-001, 3.47522527e-001,
          -2.33124439e-002, 2.07753077e-001, -5.42069077e-001,
          1.45324484e-001, 2.43865460e-001, 4.88355249e-001,
          1.99917927e-001, -5.87152302e-001, -1.14484668e-001,
          1.57637432e-001, 1.62893549e-001, 1.37089029e-001,
          7.25136399e-002, 1.84880979e-002, 7.09823444e-002,
          7.23565593e-002, -3.86079162e-001, -1.08041249e-001,
          -4.15946573e-001, 3.24886926e-002, 8.26832429e-002,
          -1.61828518e-001, -2.50204712e-001, -1.65351033e-001,
          3.48121822e-002, 3.97753976e-002, 2.94937342e-001,
          2.64231026e-001, -4.23806727e-001, -1.41178608e-001,
          -8.73482972e-002, 3.47128361e-001, 4.18259166e-002,
          1.46308482e-001, 1.94561228e-001, -5.85921574e-003,
          -1.05914436e-001, 1.05725385e-001, 2.96614468e-001,
          -3.29405367e-001, -2.88567185e-001, 9.98336747e-002,
          2.28475630e-001, -3.07367176e-001, -9.06775445e-002,
          -2.85835475e-001, -4.10094187e-002, 1.47415757e-001,
          5.74278891e-001, 7.99082577e-001, -2.27021858e-001,
          6.06484488e-002, -4.27705586e-001, -4.20608580e-001,
          -5.86034954e-002, 3.21677444e-003, 7.20025420e-001,
          -9.03063640e-002, 3.00322294e-001, 2.10232839e-001,
          6.06746674e-001, -8.62340778e-002, 3.45949829e-001,
          -5.12466669e-001, -1.93255037e-001, -3.68781149e-001,
          -1.28321558e-001, 1.27188385e+000, 7.87083209e-001,
          8.62289727e-001, 8.50708410e-002, 1.07252561e-001,
          -1.17955536e-001, -4.19259876e-001, -3.80676061e-001,
          3.85414481e-001, 6.85890734e-001, 2.09332407e-001,
          -1.07458964e-001, -3.19337398e-001, -5.61623812e-001,
          -1.15777522e-001, -2.88420469e-001, 2.20299706e-001,
          -3.41067940e-001, -1.83558002e-001, -3.90170008e-001,
          -1.31609082e-001, 2.97750264e-001, 7.84631222e-002,
          3.74642806e-003, -2.36660600e-001, -2.83214897e-001,
          3.92633379e-001, 2.90505081e-001, 4.32827890e-001,
          -1.08338289e-001, 9.31579247e-002, -2.49364868e-001,
          -3.67256612e-001, -1.10523880e-001, 2.19113335e-001,
          3.18141222e-001, 4.90481928e-002, -1.76067561e-001,
          -1.16895840e-001, -1.92965046e-001, 1.94829375e-001,
          4.75119412e-001, 1.23397075e-003, -1.25845417e-001,
          2.46916592e-001, 2.24584073e-001, -6.87736630e-001,
          -3.09776247e-001, -4.31675166e-001, -8.61058235e-002,
          1.52716592e-001, 2.61233717e-001, 2.70551324e-001,
          8.50556940e-002, -3.39157373e-001, -5.69915235e-001,
          1.20141946e-001, -3.57863843e-001, -1.89268798e-001,
          -2.34009847e-002, 5.15845358e-001, 1.91871509e-001,
          2.63449073e-001, -4.10862220e-003, -4.23211873e-001,
          3.62302125e-001, -7.55474940e-002, -2.20762357e-001,
          1.94133729e-001, -2.47657850e-001, -1.04455106e-001,
          -1.46329096e-002, 1.51386317e-002, 2.27945089e-001,
          -2.41283655e-001, -1.94507301e-001, -6.14153862e-001,
          -2.87166119e-001, -9.03483555e-002, -2.72546619e-001,
          3.35427761e-001, 2.54408512e-002, 1.04934704e+000,
          6.59523249e-001, 7.38038272e-002, -2.78153926e-001,
          -3.61785054e-001, 1.65976912e-001, 1.29080102e-001,
          -2.96556890e-001, 4.89445418e-001, 5.38595915e-001,
          4.09836292e-001, 3.95288646e-001, 2.74179876e-001,
          -4.85487193e-001, -7.44443417e-001, -4.37269568e-001,
          -5.66825211e-001, -1.45032316e-001, 4.71519798e-001,
          -1.56000674e-001, -6.03353195e-002, -5.17599165e-001,
          -4.36297357e-001, -3.44785303e-001, -1.04486787e+000,
          -4.92759436e-001, -1.03241494e-002, -2.43143931e-001,
          1.23522393e-001, 2.41843298e-001, 2.82576114e-001,
          -9.54276681e-001, -6.64059460e-001, -4.28638309e-001,
          1.45097494e-001, -8.86225179e-002, 4.47051749e-002,
          -3.13414447e-002, 6.15850352e-002, -1.24058828e-001,
          -1.74719959e-001, -3.97929162e-001, 1.54343113e-001,
          4.00318280e-002, -1.12865428e-002, -2.20816806e-001,
          -1.60362888e-002, 9.08965543e-002, 5.38413227e-001,
          5.20964205e-001, 3.89384061e-001, 1.99872166e-001,
          -4.28192466e-001, -2.77947754e-001, -3.20467919e-001,
          -2.86147237e-001, 2.79644996e-001, -1.66287616e-001,
          -5.60975671e-001, -2.69137383e-001, -9.32999030e-002,
          -3.42462480e-001, -1.14720136e-001, 5.41356266e-001,
          -3.03252280e-001, -5.56453288e-001, 1.65424481e-001,
          1.23093799e-001, 1.24919102e-001, 2.27216661e-001,
          2.71113783e-001, -2.57233921e-002, -4.62133379e-004,
          1.57096878e-001, 6.63661897e-001, 5.46126328e-002,
          -2.60883808e-001, -4.46058484e-003, -2.04514071e-001,
          -5.17073393e-001, 3.32043022e-001, 5.90744615e-001,
          3.31228942e-001, 8.06968868e-001, 3.69560659e-001,
          1.42848983e-001, -3.16378057e-001, -5.81652522e-001,
          2.42280036e-001, -3.74993294e-001, 5.15810788e-001,
          6.08061194e-001, -8.29608515e-002, -4.99678195e-001,
          -5.29464304e-001, 3.48617315e-001, 4.53285724e-001,
          -8.30984414e-001, -6.09499693e-001, -5.95986582e-002,
          1.05768919e-001, 2.93099254e-001, -7.83774972e-001,
          -2.05745220e-001, 1.06837064e-001, -6.97168767e-001,
          1.05244003e-003, 2.86693692e-001, 6.29401028e-001,
          -1.93057507e-002, 3.36946219e-001, 1.65206760e-001,
          3.65905464e-001, -1.80867091e-001, -4.30674702e-001,
          3.08016837e-001, -5.56439281e-001, -2.13483199e-001,
          -2.74620205e-001, 3.08459938e-001, 8.66084814e-001,
          3.89668077e-001, -5.13489008e-001, -2.78685868e-001,
          -6.43905640e-001, -2.12469056e-001, -1.43728659e-001,
          2.52459586e-001, 5.87096870e-001, 3.38510603e-001,
          -2.34480277e-001, -4.27297294e-001, -1.07972634e+000,
          -5.62195718e-001, 2.02629402e-001, -3.76267149e-003,
          4.91752386e-001, 2.76759446e-001, -5.39666303e-002,
          6.11304902e-002, -1.70477524e-001, -1.01812518e+000,
          4.39886004e-001, 7.96202719e-001, 6.75175846e-001,
          4.94442821e-001, 4.09025580e-001, 2.19209954e-001,
          5.80560684e-001, -9.57208574e-002, 2.18340635e-001,
          4.82834399e-001, 7.70755768e-001, 2.23110497e-001,
          -5.67745507e-001, -8.95892143e-001, -1.19204390e+000,
          3.33543241e-001, 2.12306663e-001, 3.89143050e-001,
          9.81686711e-002, -2.42404751e-002, 4.41955514e-002,
          -3.51744652e-001, -2.55428135e-001, -4.51527894e-001,
          6.80525362e-001, 5.92290998e-001, 5.91496170e-001,
          -1.55273020e-001, -7.69033611e-001, -8.47177327e-001,
          -7.92137206e-001, -6.14610732e-001, -5.16508341e-001,
          5.05780458e-001, 2.07001552e-001, 4.13338184e-001,
          -3.95702690e-001, -3.20927054e-001, -7.90794715e-002,
          -1.21760499e-002, -4.80711758e-001, -1.50288805e-001,
          2.05997005e-001, 9.27150995e-003, -3.67284954e-001,
          -1.63237736e-001, -1.27412587e-001, 3.68569613e-001,
          4.14521277e-001, 9.09347758e-002, 3.88989866e-001,
          6.56803846e-002, -3.05514932e-001, -1.45031214e-001,
          -2.82471150e-001, -6.17945790e-001, -9.94763553e-001,
          -2.01088861e-001, 7.50122517e-002, 8.07159394e-002,
          -4.89109904e-002, -1.26241073e-001, -3.21862586e-002,
          -1.71576217e-001, -3.68425310e-001, 5.18074445e-002,
          -2.04305694e-001, -3.40699285e-001, -2.35178605e-001,
          1.79794610e-001, 5.07266968e-002, 2.44965091e-001,
          -6.03237271e-001, -3.79483700e-001, -6.45427585e-001,
          -3.00792456e-001, -6.89593256e-002, -1.93156675e-002,
          2.46165946e-001, 1.04892842e-001, -5.53726666e-002,
          9.77661237e-002, 2.15047702e-001, 3.78269255e-002,
          -1.85160920e-001, -1.93261743e-001, -8.49142224e-002,
          -2.92354614e-001, -2.89078742e-001, 5.11161387e-001,
          -2.95874864e-001, -4.42424268e-002, -2.09240645e-001,
          -3.43010843e-001, -2.42413476e-001, -1.42853931e-001,
          1.19951069e+000, 2.33573124e-001, -3.19768906e-001,
          1.76693842e-001, 3.01931471e-001, -5.98970726e-002,
          1.83862805e-001, -1.68322548e-001, -1.18249029e-001,
          7.69551694e-002, 4.61727023e-001, -9.73844454e-002,
          -5.36566526e-002, -1.68119863e-001, 2.80969411e-001,
          1.12330869e-001, -3.26874614e-001, -3.32115710e-001,
          3.75431150e-001, 2.14943171e-001, 2.88673788e-001,
          -4.01547343e-001, -6.47151291e-001, -2.78613776e-001,
          -2.85053372e-001, 1.15299728e-002, -3.73240888e-001,
          -1.16823062e-001, 1.05187796e-001, -3.17761630e-001,
          2.24003717e-002, -1.53256238e-001, 3.06677788e-001,
          4.75865424e-001, -3.03992242e-001, 2.26841066e-002,
          3.86993468e-001, 3.55986863e-001, 3.45606238e-001,
          -3.75768170e-002, -1.64827090e-002, -2.47327596e-001,
          -1.59073472e-001, -1.74539700e-001, -2.22342700e-001,
          3.78340483e-001, 2.04616651e-001, 4.53653157e-001,
          1.28979176e-001, 5.63198589e-002, 1.49321094e-001,
          4.08912331e-001, -1.25274464e-001, 2.85090148e-001,
          1.03093013e-002, -5.91411255e-003, -4.10268277e-001,
          -1.57140717e-001, -1.80245787e-001, -3.01231980e-001,
          2.05735967e-001, -3.47912908e-001, -1.94975287e-001,
          -2.71210700e-001, -3.87427919e-002, -3.17048728e-001,
          4.17913973e-001, 7.34511137e-001, 3.28378797e-001,
          -2.51169831e-001, -4.20395851e-001, -2.06973270e-001,
          2.11847633e-001, 2.45730564e-001, 5.25159001e-001,
          4.20007762e-003, -2.31939584e-001, 7.98380300e-002,
          -1.16262056e-001, -3.52140605e-001, -7.39911348e-002,
          -1.90554783e-001, 2.63730913e-001, 2.04443529e-001,
          3.97889525e-001, -1.30013078e-001, 2.69719779e-001,
          4.29913253e-002, 3.84273350e-001, 3.61317307e-001,
          1.66901663e-001, 2.97923923e-001, 8.39752138e-001,
          1.08648829e-001, -2.28042677e-001, 2.42385313e-001,
          -3.97506952e-001, -4.87438858e-001, -5.40441275e-001,
          3.11299227e-002, -6.05724514e-001, -3.15501131e-002,
          4.71082240e-001, 1.94800440e-002, 3.18163395e-001,
          3.19889992e-001, 4.72841442e-001, 1.11885192e-002,
          -3.85085255e-001, -7.92779122e-003, 6.85212612e-001,
          2.12717816e-001, -8.44816342e-002, -3.01297992e-001,
          -2.56879091e-001, 1.25678375e-001, -2.29699090e-001,
          -6.53170720e-002, -2.73798376e-001, -1.78455293e-001,
          -1.75961003e-001, -3.11253011e-001, -3.43354762e-001,
          1.81733355e-001, 1.12493068e-001, 2.83762604e-001,
          -1.96998566e-001, -6.09192610e-001, -1.61112607e-001,
          -5.63087702e-001, -3.45137179e-001, 2.83628446e-003,
          8.48014876e-002, 5.67120552e-001, 3.47509533e-001,
          4.65028882e-001, 2.86733478e-001, 1.64572030e-001,
          -1.46652952e-001, -5.59322303e-003, -8.80765259e-001,
          -5.98587632e-001, -2.74836272e-001, -3.52870315e-001,
          3.96863848e-001, 3.49650115e-001, 2.43427098e-001,
          -1.37063995e-001, -5.64084947e-002, -4.89125878e-001,
          5.15647590e-001, 8.59937131e-001, 6.68293178e-001,
          4.97051567e-001, 7.05445945e-001, 1.88518882e-001,
          1.57314986e-001, 2.44368352e-002, 1.28778696e-001,
          1.60400197e-001, -7.63593540e-002, -2.45249420e-001,
          4.75126617e-002, 1.27731916e-002, -1.30464375e-001,
          1.36763498e-001, -7.35234395e-002, -1.77841231e-001,
          1.47988811e-001, -2.28074670e-001, 2.47453004e-001,
          4.34832692e-001, 5.03655910e-001, 1.62696213e-001,
          4.04163599e-002, 5.10198414e-001, 1.13284700e-001,
          -1.55564502e-001, 9.31519121e-002, -2.45888323e-001,
          1.43584505e-001, -3.56384158e-001, -1.93904325e-001,
          1.48528397e-001, 2.90340364e-001, -5.05990162e-002,
          1.92090079e-001, 4.71097440e-001, 8.11335295e-002,
          -1.46337762e-001, -1.61200121e-001, 4.67950068e-002,
          4.27479982e-001, -3.91433798e-002, 8.02917331e-002,
          3.26664060e-001, 2.21131265e-001, -7.38610178e-002,
          1.82356298e-001, -1.83302164e-001, -1.04362302e-001,
          8.31760019e-002, -4.70030159e-002, 2.21815482e-001,
          1.33263826e-001, -4.01369542e-001, -1.26746101e-002,
          9.72846076e-002, -1.01077437e+000, -9.36338082e-002,
          3.61414760e-001, 7.69456699e-002, 1.10782318e-001,
          2.33223200e-001, 6.51936650e-001, 1.13940746e-001,
          2.42172927e-002, 2.83380866e-001, -1.28299341e-001,
          2.51478463e-001, -5.34127295e-001, -3.35256666e-001,
          3.86374652e-001, 5.00446796e-001, 4.95268358e-003,
          -5.47862351e-001, -2.20393136e-001, -2.50708759e-001,
          6.21727575e-003, 4.16229427e-001, 4.81532127e-001,
          4.84340310e-001, -5.11400938e-001, -2.71512896e-001,
          1.03773393e-001, -1.85308218e-001, -9.77490023e-002,
          -4.44395632e-001, -2.96292543e-001, 2.43480429e-001,
          -5.85868843e-002, -4.17644233e-001, -3.51867318e-001,
          -4.01520699e-001, -1.64974600e-001, -3.59150499e-001,
          3.30486968e-002, 1.23121753e-001, 5.43808281e-001,
          5.56969583e-001, 3.65297832e-002, -8.18432774e-003,
          1.07579149e-001, -4.21645522e-001, -6.59134984e-002,
          -2.92962641e-001, -2.73347467e-001, 1.77790031e-001,
          -7.67912120e-002, -7.81172933e-003, -2.49479100e-001,
          -8.13083537e-003, 1.50824711e-001, -4.12728548e-001,
          2.36038849e-001, -3.03904891e-001, -2.11618021e-001,
          -2.95473576e-001, 2.79989671e-002, -5.16395748e-001,
          -1.16925538e+000, -2.69433081e-001, 8.33964497e-002,
          5.12830615e-001, -1.34191494e-002, -2.50822723e-001,
          -5.01765497e-002, -1.93787709e-001, 3.28888685e-001,
          -6.59446955e-001, -5.51878095e-001, -3.10277939e-001,
          2.57077962e-001, 2.73601234e-001, -7.34717101e-002,
          4.16527659e-001, 3.66023630e-001, 6.01449013e-002,
          1.97668493e-001, 2.47886077e-001, -1.50697246e-001,
          8.10334608e-002, -1.78940788e-001, 6.10492408e-001,
          7.83554256e-001, 8.53093788e-002, 1.86735675e-001,
          -1.12619482e-001, 3.65296692e-001, -2.86774486e-001,
          -7.73127854e-001, -6.79937661e-001, -9.74118054e-001,
          -6.71223342e-001, -5.71870148e-001, -7.46954441e-001,
          1.90556705e-001, -3.76997769e-001, -3.37318152e-001,
          -4.91766214e-001, 1.04442649e-001, 3.46523412e-002,
          2.83485174e-001, -3.33316326e-001, 3.00838444e-002,
          1.52112976e-001, -1.04229786e-001, 1.19180847e-002,
          -3.74018669e-001, -3.84832650e-001, 1.29892796e-001,
          -9.20574069e-002, 1.19666666e-001, 9.86575261e-002,
          -1.90609336e-001, 1.60871699e-001, -2.85608023e-001,
          8.72005299e-002, -3.01945917e-002, 5.61029553e-001,
          9.02475893e-001, 6.14091933e-001, 1.88467637e-001,
          -6.28252327e-002, 7.77425110e-001, 1.39784321e-001 ]
   decision_functions:
      -
         sv_count: 1
         rho: -3.8983139923252788e+000
         alpha: [ 1. ]
         index: [ 0 ]
